{"trees": [{"children_left": [1, -1, -1], "children_right": [2, -1, -1], "feature": [2376, -2, -2], "threshold": [0.5989697873592377, -2.0, -2.0], "value": [[0.5000000000000006, 0.5000000000000006], [0.8461538461538461, 0.15384615384615374], [0.3884297520661165, 0.6115702479338848]]}, {"children_left": [1, -1, -1], "children_right": [2, -1, -1], "feature": [2271, -2, -2], "threshold": [0.6042947769165039, -2.0, -2.0], "value": [[0.5091054575738642, 0.490894542426137], [0.8110698125065221, 0.18893018749347798], [0.39598497782973474, 0.604015022170265]]}, {"children_left": [1, -1, -1], "children_right": [2, -1, -1], "feature": [2376, -2, -2], "threshold": [0.5989697873592377, -2.0, -2.0], "value": [[0.5168490560441492, 0.4831509439558538], [0.8274937063153498, 0.17250629368465023], [0.4199176876137556, 0.5800823123862459]]}, {"children_left": [1, -1, -1], "children_right": [2, -1, -1], "feature": [2376, -2, -2], "threshold": [0.5989697873592377, -2.0, -2.0], "value": [[0.5245224706513192, 0.47547752934868287], [0.819194347886852, 0.1808056521131477], [0.4338789942975575, 0.5661210057024451]]}, {"children_left": [1, -1, -1], "children_right": [2, -1, -1], "feature": [2271, -2, -2], "threshold": [0.6042947769165039, -2.0, -2.0], "value": [[0.5315235874152496, 0.4684764125847467], [0.7886497957405605, 0.21135020425943968], [0.438496835001884, 0.5615031649981135]]}, {"children_left": [1, -1, -1], "children_right": [2, -1, -1], "feature": [2376, -2, -2], "threshold": [0.5989697873592377, -2.0, -2.0], "value": [[0.53757787506916, 0.4624221249308398], [0.8037336894161825, 0.19626631058381763], [0.4577702172145805, 0.5422297827854191]]}, {"children_left": [1, -1, -1], "children_right": [2, -1, -1], "feature": [2017, -2, -2], "threshold": [0.3773249089717865, -2.0, -2.0], "value": [[0.5433655066525317, 0.4566344933474679], [0.7911172308573889, 0.20888276914261106], [0.461379549303238, 0.5386204506967613]]}, {"children_left": [1, -1, -1], "children_right": [2, -1, -1], "feature": [1843, -2, -2], "threshold": [0.7262073755264282, -2.0, -2.0], "value": [[0.5487373261159374, 0.4512626738840613], [0.5849766054217529, 0.4150233945782469], [0.0, 1.0]]}, {"children_left": [1, -1, -1], "children_right": [2, -1, -1], "feature": [2271, -2, -2], "threshold": [0.6042947769165039, -2.0, -2.0], "value": [[0.5390731133115272, 0.4609268866884747], [0.7715719299596056, 0.22842807004039462], [0.45729028813097394, 0.5427097118690263]]}, {"children_left": [1, -1, -1], "children_right": [2, -1, -1], "feature": [1801, -2, -2], "threshold": [0.7264809608459473, -2.0, -2.0], "value": [[0.5442343854126198, 0.4557656145873801], [0.5790724644087306, 0.42092753559126955], [0.0, 1.0]]}, {"children_left": [1, -1, -1], "children_right": [2, -1, -1], "feature": [1418, -2, -2], "threshold": [-1.8412548303604126, -2.0, -2.0], "value": [[0.5350703828728385, 0.4649296171271612], [0.27068215432635334, 0.729317845673647], [0.6061023662023377, 0.39389763379766135]]}, {"children_left": [1, -1, -1], "children_right": [2, -1, -1], "feature": [1996, -2, -2], "threshold": [0.37724901735782623, -2.0, -2.0], "value": [[0.5274629290732193, 0.4725370709267832], [0.7688697707281279, 0.2311302292718722], [0.4505676410012447, 0.5494323589987561]]}, {"children_left": [1, -1, -1], "children_right": [2, -1, -1], "feature": [1822, -2, -2], "threshold": [0.7262320220470428, -2.0, -2.0], "value": [[0.5329732769876536, 0.46702672301234677], [0.5665965363263736, 0.43340346367362625], [0.0, 1.0]]}, {"children_left": [1, -1, -1], "children_right": [2, -1, -1], "feature": [2376, -2, -2], "threshold": [0.5989697873592377, -2.0, -2.0], "value": [[0.5248295321400591, 0.4751704678599411], [0.7709278451380317, 0.22907215486196858], [0.4550950339072458, 0.544904966092754]]}, {"children_left": [1, -1, -1], "children_right": [2, -1, -1], "feature": [3005, -2, -2], "threshold": [-1.134252905845642, -2.0, -2.0], "value": [[0.5302982561617583, 0.46970174383824165], [0.6034506082942873, 0.39654939170571335], [0.28737176620248, 0.7126282337975196]]}, {"children_left": [1, -1, -1], "children_right": [2, -1, -1], "feature": [1822, -2, -2], "threshold": [0.7262320220470428, -2.0, -2.0], "value": [[0.5233854981196185, 0.47661450188038196], [0.5562382545611161, 0.443761745438884], [0.0, 1.0]]}, {"children_left": [1, -1, -1], "children_right": [2, -1, -1], "feature": [4004, -2, -2], "threshold": [-1.6142604351043701, -2.0, -2.0], "value": [[0.5160924602388471, 0.483907539761153], [0.31869882619375733, 0.6813011738062429], [0.6024980455214505, 0.39750195447854986]]}, {"children_left": [1, -1, -1], "children_right": [2, -1, -1], "feature": [1999, -2, -2], "threshold": [0.3682188093662262, -2.0, -2.0], "value": [[0.5111096899424601, 0.48889031005754086], [0.7011751321136067, 0.2988248678863933], [0.4193685242930338, 0.5806314757069674]]}, {"children_left": [1, -1, -1], "children_right": [2, -1, -1], "feature": [1418, -2, -2], "threshold": [-1.8412548303604126, -2.0, -2.0], "value": [[0.515464984060386, 0.4845350159396148], [0.2689938286744742, 0.7310061713255257], [0.5821547826087938, 0.41784521739120745]]}, {"children_left": [1, -1, -1], "children_right": [2, -1, -1], "feature": [3005, -2, -2], "threshold": [-1.1244696974754333, -2.0, -2.0], "value": [[0.5088601240509415, 0.49113987594906], [0.5773075706800757, 0.4226924293199253], [0.2660710162597976, 0.7339289837402021]]}, {"children_left": [1, -1, -1], "children_right": [2, -1, -1], "feature": [2376, -2, -2], "threshold": [0.5989697873592377, -2.0, -2.0], "value": [[0.5025066068853073, 0.49749339311469276], [0.7495988761120641, 0.2504011238879356], [0.4345614172960779, 0.5654385827039229]]}, {"children_left": [1, -1, -1], "children_right": [2, -1, -1], "feature": [1822, -2, -2], "threshold": [0.7262320220470428, -2.0, -2.0], "value": [[0.5086147334332279, 0.4913852665667727], [0.5406988157628788, 0.45930118423712046], [0.0, 1.0]]}, {"children_left": [1, -1, -1], "children_right": [2, -1, -1], "feature": [1088, -2, -2], "threshold": [0.006244953838177025, -2.0, -2.0], "value": [[0.5025937924646492, 0.49740620753535103], [0.4635644546820288, 0.5364355453179729], [0.9234404564637375, 0.07655954353626229]]}, {"children_left": [1, -1, -1], "children_right": [2, -1, -1], "feature": [1843, -2, -2], "threshold": [0.7262073755264282, -2.0, -2.0], "value": [[0.5083989692570408, 0.4916010307429594], [0.5396615646048603, 0.46033843539513963], [0.0, 1.0]]}, {"children_left": [1, -1, -1], "children_right": [2, -1, -1], "feature": [1088, -2, -2], "threshold": [0.006244953838177025, -2.0, -2.0], "value": [[0.5025045744882485, 0.4974954255117519], [0.4646471659963243, 0.5353528340036762], [0.9194914296811791, 0.08050857031882079]]}, {"children_left": [1, -1, -1], "children_right": [2, -1, -1], "feature": [3005, -2, -2], "threshold": [-1.134252905845642, -2.0, -2.0], "value": [[0.5081652236883011, 0.49183477631169886], [0.576853429640686, 0.42314657035931436], [0.2824605094865115, 0.7175394905134881]]}, {"children_left": [1, -1, -1], "children_right": [2, -1, -1], "feature": [2187, -2, -2], "threshold": [0.5813074111938477, -2.0, -2.0], "value": [[0.5022307071632751, 0.4977692928367239], [0.7852291535239231, 0.21477084647607686], [0.4447130990422598, 0.5552869009577396]]}, {"children_left": [1, -1, -1], "children_right": [2, -1, -1], "feature": [1822, -2, -2], "threshold": [0.7262320220470428, -2.0, -2.0], "value": [[0.5085687648474647, 0.49143123515253556], [0.5392935880456643, 0.46070641195433604], [0.0, 1.0]]}, {"children_left": [1, -1, -1], "children_right": [2, -1, -1], "feature": [1130, -2, -2], "threshold": [-0.18391742557287216, -2.0, -2.0], "value": [[0.5027329121358629, 0.4972670878641354], [0.43996629247949265, 0.5600337075205067], [0.7466061080060037, 0.2533938919939962]]}, {"children_left": [1, -1, -1], "children_right": [2, -1, -1], "feature": [1822, -2, -2], "threshold": [0.7262320220470428, -2.0, -2.0], "value": [[0.5086435758353407, 0.4913564241646601], [0.5387652469198118, 0.4612347530801891], [0.0, 1.0]]}, {"children_left": [1, -1, -1], "children_right": [2, -1, -1], "feature": [1418, -2, -2], "threshold": [-1.8412548303604126, -2.0, -2.0], "value": [[0.502883133028412, 0.4971168669715882], [0.2691321971269784, 0.7308678028730216], [0.5667557436881412, 0.43324425631185876]]}, {"children_left": [1, -1, -1], "children_right": [2, -1, -1], "feature": [3005, -2, -2], "threshold": [-1.134252905845642, -2.0, -2.0], "value": [[0.4969678132796165, 0.5030321867203835], [0.5648808490189916, 0.4351191509810085], [0.27470920321676273, 0.7252907967832373]]}, {"children_left": [1, -1, -1], "children_right": [2, -1, -1], "feature": [4140, -2, -2], "threshold": [0.5951978266239166, -2.0, -2.0], "value": [[0.4914058074811494, 0.5085941925188509], [0.7241061913764539, 0.27589380862354623], [0.42584558988485544, 0.5741544101151449]]}, {"children_left": [1, -1, -1], "children_right": [2, -1, -1], "feature": [1088, -2, -2], "threshold": [0.05310463346540928, -2.0, -2.0], "value": [[0.49749013701564765, 0.5025098629843516], [0.46796057053123885, 0.5320394294687609], [1.0, 0.0]]}, {"children_left": [1, -1, -1], "children_right": [2, -1, -1], "feature": [1843, -2, -2], "threshold": [0.7262073755264282, -2.0, -2.0], "value": [[0.502674126245591, 0.49732587375440895], [0.5323683901429689, 0.46763160985703206], [0.0, 1.0]]}, {"children_left": [1, -1, -1], "children_right": [2, -1, -1], "feature": [1996, -2, -2], "threshold": [0.37724901735782623, -2.0, -2.0], "value": [[0.49745389961358716, 0.5025461003864121], [0.7159305946931713, 0.2840694053068284], [0.4310024982725166, 0.5689975017274834]]}, {"children_left": [1, -1, -1], "children_right": [2, -1, -1], "feature": [1801, -2, -2], "threshold": [0.7264809608459473, -2.0, -2.0], "value": [[0.5030565146895554, 0.49694348531044547], [0.5319278518750512, 0.4680721481249493], [0.0, 1.0]]}, {"children_left": [1, -1, -1], "children_right": [2, -1, -1], "feature": [1088, -2, -2], "threshold": [0.05310463346540928, -2.0, -2.0], "value": [[0.49792045963501386, 0.5020795403649864], [0.4689409873881167, 0.5310590126118828], [1.0, 0.0]]}, {"children_left": [1, -1, -1], "children_right": [2, -1, -1], "feature": [3005, -2, -2], "threshold": [-1.134252905845642, -2.0, -2.0], "value": [[0.5029924794865216, 0.4970075205134773], [0.5682376525860031, 0.4317623474139962], [0.28395641263672017, 0.7160435873632797]]}, {"children_left": [1, -1, -1], "children_right": [2, -1, -1], "feature": [4004, -2, -2], "threshold": [-1.6142604351043701, -2.0, -2.0], "value": [[0.49737658849786814, 0.5026234115021313], [0.31577292475926144, 0.6842270752407388], [0.5792889667697715, 0.420711033230228]]}, {"children_left": [1, -1, -1], "children_right": [2, -1, -1], "feature": [2271, -2, -2], "threshold": [0.6042947769165039, -2.0, -2.0], "value": [[0.493035324901873, 0.506964675098128], [0.703987207670819, 0.2960127923291812], [0.4252349663138856, 0.574765033686115]]}, {"children_left": [1, -1, -1], "children_right": [2, -1, -1], "feature": [1843, -2, -2], "threshold": [0.7262073755264282, -2.0, -2.0], "value": [[0.49856580025268304, 0.5014341997473166], [0.5270846809977537, 0.472915319002246], [0.0, 1.0]]}, {"children_left": [1, -1, -1], "children_right": [2, -1, -1], "feature": [1088, -2, -2], "threshold": [0.05310463346540928, -2.0, -2.0], "value": [[0.49384435350788086, 0.5061556464921195], [0.46572142253364623, 0.5342785774663528], [1.0, 0.0]]}, {"children_left": [1, -1, -1], "children_right": [2, -1, -1], "feature": [3005, -2, -2], "threshold": [-1.134252905845642, -2.0, -2.0], "value": [[0.49912768992982826, 0.5008723100701711], [0.5641687696312546, 0.4358312303687457], [0.2808443080621323, 0.719155691937868]]}, {"children_left": [1, -1, -1], "children_right": [2, -1, -1], "feature": [1088, -2, -2], "threshold": [0.05310463346540928, -2.0, -2.0], "value": [[0.49363432670213786, 0.5063656732978628], [0.4660376549053156, 0.5339623450946847], [1.0, 0.0]]}, {"children_left": [1, -1, -1], "children_right": [2, -1, -1], "feature": [1843, -2, -2], "threshold": [0.7262073755264282, -2.0, -2.0], "value": [[0.4988609490976316, 0.501139050902368], [0.5269500666463338, 0.47304993335366674], [0.0, 1.0]]}, {"children_left": [1, -1, -1], "children_right": [2, -1, -1], "feature": [569, -2, -2], "threshold": [-2.4408962726593018, -2.0, -2.0], "value": [[0.4941772773528411, 0.5058227226471592], [0.8638118725435505, 0.13618812745644937], [0.45631493742459206, 0.5436850625754087]]}, {"children_left": [1, -1, -1], "children_right": [2, -1, -1], "feature": [1418, -2, -2], "threshold": [-1.8412548303604126, -2.0, -2.0], "value": [[0.5001992304986209, 0.49980076950137864], [0.2738187292056554, 0.7261812707943446], [0.561751990382178, 0.43824800961782123]]}, {"children_left": [1, -1, -1], "children_right": [2, -1, -1], "feature": [2, -2, -2], "threshold": [-2.6637325286865234, -2.0, -2.0], "value": [[0.49456099287194066, 0.5054390071280598], [0.9231978866819195, 0.07680211331808051], [0.4616189067641888, 0.5383810932358118]]}, {"children_left": [1, -1, -1], "children_right": [2, -1, -1], "feature": [1822, -2, -2], "threshold": [0.7262320220470428, -2.0, -2.0], "value": [[0.5002386849588321, 0.4997613150411675], [0.5279651572097322, 0.4720348427902677], [0.0, 1.0]]}, {"children_left": [1, -1, -1], "children_right": [2, -1, -1], "feature": [569, -2, -2], "threshold": [-2.4408962726593018, -2.0, -2.0], "value": [[0.4954948372073983, 0.504505162792601], [0.8636975044059227, 0.13630249559407728], [0.4583491198000929, 0.5416508801999061]]}, {"children_left": [1, -1, -1], "children_right": [2, -1, -1], "feature": [1801, -2, -2], "threshold": [0.7264809608459473, -2.0, -2.0], "value": [[0.5013489471432271, 0.4986510528567734], [0.5286324994645736, 0.4713675005354261], [0.0, 1.0]]}, {"children_left": [1, -1, -1], "children_right": [2, -1, -1], "feature": [1088, -2, -2], "threshold": [0.05310463346540928, -2.0, -2.0], "value": [[0.4965780147170328, 0.5034219852829674], [0.4693400224042202, 0.5306599775957802], [1.0, 0.0]]}, {"children_left": [1, -1, -1], "children_right": [2, -1, -1], "feature": [1999, -2, -2], "threshold": [0.3682188093662262, -2.0, -2.0], "value": [[0.501512413746428, 0.4984875862535713], [0.6702024233319178, 0.3297975766680821], [0.42107449810841, 0.5789255018915905]]}, {"children_left": [1, -1, -1], "children_right": [2, -1, -1], "feature": [3551, -2, -2], "threshold": [-1.9946499466896057, -2.0, -2.0], "value": [[0.5054395623784119, 0.4945604376215877], [0.2899812801500915, 0.7100187198499087], [0.5695379480514786, 0.43046205194852066]]}, {"children_left": [1, -1, -1], "children_right": [2, -1, -1], "feature": [5, -2, -2], "threshold": [-1.9747059345245361, -2.0, -2.0], "value": [[0.4998528114219661, 0.5001471885780341], [0.8483900634199193, 0.15160993658008068], [0.45951510497616876, 0.540484895023831]]}, {"children_left": [1, -1, -1], "children_right": [2, -1, -1], "feature": [1822, -2, -2], "threshold": [0.7262320220470428, -2.0, -2.0], "value": [[0.5056448593018469, 0.49435514069815356], [0.5323424412251065, 0.4676575587748939], [0.0, 1.0]]}, {"children_left": [1, -1, -1], "children_right": [2, -1, -1], "feature": [1088, -2, -2], "threshold": [0.05310463346540928, -2.0, -2.0], "value": [[0.5006048785344844, 0.49939512146551523], [0.47371283652039664, 0.5262871634796035], [1.0, 0.0]]}, {"children_left": [1, -1, -1], "children_right": [2, -1, -1], "feature": [2492, -2, -2], "threshold": [-1.8892830610275269, -2.0, -2.0], "value": [[0.5051587722871006, 0.4948412277128999], [0.22553915481904196, 0.7744608451809578], [0.5526915690926436, 0.44730843090735645]]}, {"children_left": [1, -1, -1], "children_right": [2, -1, -1], "feature": [5, -2, -2], "threshold": [-1.9747059345245361, -2.0, -2.0], "value": [[0.49907388306704425, 0.5009261169329565], [0.8442018438277515, 0.15579815617224857], [0.45958408595696526, 0.5404159140430347]]}, {"children_left": [1, -1, -1], "children_right": [2, -1, -1], "feature": [2996, -2, -2], "threshold": [-0.9603009223937988, -2.0, -2.0], "value": [[0.5048130528829562, 0.49518694711704375], [0.5675616655751894, 0.4324383344248103], [0.2925391062178536, 0.7074608937821466]]}, {"children_left": [1, -1, -1], "children_right": [2, -1, -1], "feature": [2187, -2, -2], "threshold": [0.5813074111938477, -2.0, -2.0], "value": [[0.4993293822174214, 0.5006706177825775], [0.7618592714843548, 0.23814072851564502], [0.44698648333739105, 0.553013516662609]]}, {"children_left": [1, -1, -1], "children_right": [2, -1, -1], "feature": [647, -2, -2], "threshold": [0.027317668311297894, -2.0, -2.0], "value": [[0.5052626730633127, 0.4947373269366875], [0.47319116326089117, 0.5268088367391087], [0.9220702629008041, 0.07792973709919569]]}, {"children_left": [1, -1, -1], "children_right": [2, -1, -1], "feature": [1801, -2, -2], "threshold": [0.7264809608459473, -2.0, -2.0], "value": [[0.5100121825053914, 0.4899878174946086], [0.5362315062476923, 0.4637684937523081], [0.0, 1.0]]}, {"children_left": [1, -1, -1], "children_right": [2, -1, -1], "feature": [569, -2, -2], "threshold": [-2.4408962726593018, -2.0, -2.0], "value": [[0.5046794536013157, 0.49532054639868445], [0.8703823887608158, 0.12961761123918436], [0.46814320802861853, 0.5318567919713819]]}, {"children_left": [1, -1, -1], "children_right": [2, -1, -1], "feature": [4526, -2, -2], "threshold": [-1.819452702999115, -2.0, -2.0], "value": [[0.5098449818304763, 0.4901550181695232], [0.2773394932367831, 0.722660506763217], [0.5674075539456349, 0.43259244605436437]]}, {"children_left": [1, -1, -1], "children_right": [2, -1, -1], "feature": [1088, -2, -2], "threshold": [0.05310463346540928, -2.0, -2.0], "value": [[0.5038593084376256, 0.4961406915623734], [0.47734408189153993, 0.5226559181084596], [1.0, 0.0]]}, {"children_left": [1, -1, -1], "children_right": [2, -1, -1], "feature": [1801, -2, -2], "threshold": [0.7264809608459473, -2.0, -2.0], "value": [[0.5080903739688032, 0.4919096260311972], [0.5341416040523923, 0.4658583959476072], [0.0, 1.0]]}, {"children_left": [1, -1, -1], "children_right": [2, -1, -1], "feature": [569, -2, -2], "threshold": [-2.4408962726593018, -2.0, -2.0], "value": [[0.5029405310801862, 0.49705946891981323], [0.8669059774948149, 0.13309402250518515], [0.4671108944648974, 0.5328891055351025]]}, {"children_left": [1, -1, -1], "children_right": [2, -1, -1], "feature": [1822, -2, -2], "threshold": [0.7262320220470428, -2.0, -2.0], "value": [[0.5081368814179281, 0.4918631185820719], [0.5337240368818783, 0.4662759631181219], [0.0, 1.0]]}, {"children_left": [1, -1, -1], "children_right": [2, -1, -1], "feature": [605, -2, -2], "threshold": [0.0580774862319231, -2.0, -2.0], "value": [[0.5030494420208339, 0.4969505579791661], [0.4768535116160838, 0.5231464883839162], [1.0, 0.0]]}, {"children_left": [1, -1, -1], "children_right": [2, -1, -1], "feature": [5, -2, -2], "threshold": [-1.9747059345245361, -2.0, -2.0], "value": [[0.5072998324362936, 0.49270016756370627], [0.8435762122278263, 0.15642378777217367], [0.46906129589426476, 0.5309387041057352]]}, {"children_left": [1, -1, -1], "children_right": [2, -1, -1], "feature": [1418, -2, -2], "threshold": [-1.8412548303604126, -2.0, -2.0], "value": [[0.5123481283818606, 0.4876518716181401], [0.28714227965318423, 0.7128577203468158], [0.5701660244760176, 0.4298339755239827]]}, {"children_left": [1, -1, -1], "children_right": [2, -1, -1], "feature": [3005, -2, -2], "threshold": [-1.134252905845642, -2.0, -2.0], "value": [[0.5064216564885442, 0.4935783435114559], [0.5691772265612565, 0.43082277343874376], [0.29741894478067166, 0.7025810552193282]]}, {"children_left": [1, -1, -1], "children_right": [2, -1, -1], "feature": [2271, -2, -2], "threshold": [0.6042947769165039, -2.0, -2.0], "value": [[0.5009722320113383, 0.49902776798866116], [0.70300642155391, 0.2969935784460898], [0.43579535232008326, 0.5642046476799165]]}, {"children_left": [1, -1, -1], "children_right": [2, -1, -1], "feature": [716, -2, -2], "threshold": [-2.2489248514175415, -2.0, -2.0], "value": [[0.5060835459728377, 0.49391645402716244], [0.7644044948215468, 0.23559550517845335], [0.45510628162329836, 0.5448937183767015]]}, {"children_left": [1, -1, -1], "children_right": [2, -1, -1], "feature": [1843, -2, -2], "threshold": [0.7262073755264282, -2.0, -2.0], "value": [[0.5115970588364048, 0.48840294116359556], [0.5368555880228328, 0.4631444119771677], [0.0, 1.0]]}, {"children_left": [1, -1, -1], "children_right": [2, -1, -1], "feature": [647, -2, -2], "threshold": [0.027317668311297894, -2.0, -2.0], "value": [[0.5062686431764867, 0.49373135682351416], [0.4749095195341062, 0.5250904804658936], [0.919864027164302, 0.08013597283569801]]}, {"children_left": [1, -1, -1], "children_right": [2, -1, -1], "feature": [2468, -2, -2], "threshold": [-1.8497785329818726, -2.0, -2.0], "value": [[0.5108432115820536, 0.489156788417946], [0.25616031370681513, 0.7438396862931846], [0.5611847968613685, 0.43881520313863165]]}, {"children_left": [1, -1, -1], "children_right": [2, -1, -1], "feature": [1485, -2, -2], "threshold": [0.8946009278297424, -2.0, -2.0], "value": [[0.5046718528077692, 0.49532814719223134], [0.44785099772217946, 0.5521490022778198], [0.7339454346362477, 0.2660545653637522]]}, {"children_left": [1, -1, -1], "children_right": [2, -1, -1], "feature": [4680, -2, -2], "threshold": [0.277958407998085, -2.0, -2.0], "value": [[0.5100791985886484, 0.4899208014113519], [0.5896222234945182, 0.4103777765054817], [0.3437692026038091, 0.6562307973961907]]}, {"children_left": [1, -1, -1], "children_right": [2, -1, -1], "feature": [1088, -2, -2], "threshold": [0.05310463346540928, -2.0, -2.0], "value": [[0.5061204702739849, 0.4938795297260145], [0.48006470162711273, 0.5199352983728874], [1.0, 0.0]]}, {"children_left": [1, -1, -1], "children_right": [2, -1, -1], "feature": [1822, -2, -2], "threshold": [0.7262320220470428, -2.0, -2.0], "value": [[0.5100968388886389, 0.48990316111136134], [0.5352489537496877, 0.46475104625031266], [0.0, 1.0]]}, {"children_left": [1, -1, -1], "children_right": [2, -1, -1], "feature": [605, -2, -2], "threshold": [0.0580774862319231, -2.0, -2.0], "value": [[0.5049085447980235, 0.49509145520197645], [0.4792313265503543, 0.5207686734496452], [1.0, 0.0]]}, {"children_left": [1, -1, -1], "children_right": [2, -1, -1], "feature": [2906, -2, -2], "threshold": [-0.7897855043411255, -2.0, -2.0], "value": [[0.508928028979318, 0.4910719710206819], [0.5865333042581494, 0.4134666957418506], [0.34569446855024144, 0.6543055314497588]]}, {"children_left": [1, -1, -1], "children_right": [2, -1, -1], "feature": [1088, -2, -2], "threshold": [0.05310463346540928, -2.0, -2.0], "value": [[0.5050375490225463, 0.4949624509774529], [0.4792530058959641, 0.5207469941040357], [1.0, 0.0]]}, {"children_left": [1, -1, -1], "children_right": [2, -1, -1], "feature": [3560, -2, -2], "threshold": [-1.7726916670799255, -2.0, -2.0], "value": [[0.5090624990821849, 0.49093750091781496], [0.2880975869918459, 0.7119024130081544], [0.5666895551714594, 0.43331044482853975]]}, {"children_left": [1, -1, -1], "children_right": [2, -1, -1], "feature": [5, -2, -2], "threshold": [-1.9747059345245361, -2.0, -2.0], "value": [[0.503332402354814, 0.4966675976451866], [0.8433105492653353, 0.15668945073466456], [0.46503445740872684, 0.5349655425912733]]}, {"children_left": [1, -1, -1], "children_right": [2, -1, -1], "feature": [4140, -2, -2], "threshold": [0.5951978266239166, -2.0, -2.0], "value": [[0.5086567156337325, 0.4913432843662673], [0.7200046884880558, 0.2799953115119442], [0.4482679803304481, 0.5517320196695518]]}, {"children_left": [1, -1, -1], "children_right": [2, -1, -1], "feature": [1801, -2, -2], "threshold": [0.7264809608459473, -2.0, -2.0], "value": [[0.5137050074399093, 0.48629499256009057], [0.5386354061681925, 0.46136459383180706], [0.0, 1.0]]}, {"children_left": [1, -1, -1], "children_right": [2, -1, -1], "feature": [569, -2, -2], "threshold": [-2.4408962726593018, -2.0, -2.0], "value": [[0.5082472296568861, 0.49175277034311354], [0.8690355543361601, 0.1309644456638398], [0.4730348842578833, 0.526965115742116]]}, {"children_left": [1, -1, -1], "children_right": [2, -1, -1], "feature": [2492, -2, -2], "threshold": [-1.8892830610275269, -2.0, -2.0], "value": [[0.5130028163995028, 0.48699718360049715], [0.23646158466937556, 0.7635384153306245], [0.5584428970905062, 0.4415571029094939]]}, {"children_left": [1, -1, -1], "children_right": [2, -1, -1], "feature": [1485, -2, -2], "threshold": [0.8946009278297424, -2.0, -2.0], "value": [[0.5066868519657776, 0.49331314803422205], [0.4502959465182679, 0.5497040534817326], [0.7348806586963755, 0.26511934130362436]]}, {"children_left": [1, -1, -1], "children_right": [2, -1, -1], "feature": [1088, -2, -2], "threshold": [0.05310463346540928, -2.0, -2.0], "value": [[0.511991104884808, 0.4880088951151916], [0.4860385217669309, 0.5139614782330694], [1.0, 0.0]]}, {"children_left": [1, -1, -1], "children_right": [2, -1, -1], "feature": [1822, -2, -2], "threshold": [0.7262320220470428, -2.0, -2.0], "value": [[0.5154686488572975, 0.4845313511427029], [0.540011387583014, 0.45998861241698574], [0.0, 1.0]]}, {"children_left": [1, -1, -1], "children_right": [2, -1, -1], "feature": [605, -2, -2], "threshold": [0.0580774862319231, -2.0, -2.0], "value": [[0.5099180729360949, 0.49008192706390563], [0.48427975384835553, 0.5157202461516449], [1.0, 0.0]]}, {"children_left": [1, -1, -1], "children_right": [2, -1, -1], "feature": [1088, -2, -2], "threshold": [0.05310463346540928, -2.0, -2.0], "value": [[0.5135180529931833, 0.4864819470068171], [0.4880426943998806, 0.5119573056001201], [1.0, 0.0]]}, {"children_left": [1, -1, -1], "children_right": [2, -1, -1], "feature": [1822, -2, -2], "threshold": [0.7262320220470428, -2.0, -2.0], "value": [[0.5167961431666311, 0.48320385683336925], [0.5407673801689213, 0.45923261983107894], [0.0, 1.0]]}, {"children_left": [1, -1, -1], "children_right": [2, -1, -1], "feature": [569, -2, -2], "threshold": [-2.4408962726593018, -2.0, -2.0], "value": [[0.5112147400670445, 0.4887852599329557], [0.8688100762960108, 0.13118992370398933], [0.47665871925805947, 0.5233412807419401]]}, {"children_left": [1, -1, -1], "children_right": [2, -1, -1], "feature": [605, -2, -2], "threshold": [0.0580774862319231, -2.0, -2.0], "value": [[0.5156804820117921, 0.4843195179882076], [0.490432549146647, 0.509567450853352], [1.0, 0.0]]}], "weights": [0.07025369209097841, 0.06652661952061607, 0.057069135074776095, 0.051362221567298444, 0.04974090620876331, 0.04161186787405455, 0.04113070144971431, 0.045020212343958685, 0.0414909800710509, 0.04238169455027495, 0.054164810171459105, 0.04156587103736863, 0.03735470202374891, 0.03838852101318114, 0.05267224643798858, 0.03328303319498865, 0.05171900293038301, 0.048901364909830256, 0.04635403926669166, 0.04546822593054085, 0.04269999341059433, 0.027350392741977286, 0.027891567531681295, 0.026688888099980657, 0.02709466759655986, 0.04459610791557548, 0.03810534206610776, 0.02636816847532035, 0.03980685743408727, 0.02596582813876946, 0.041370370277601674, 0.04155749538322186, 0.043520164735294325, 0.023309957307141707, 0.0234881075428613, 0.0419090025212184, 0.023034635416742052, 0.02275720979902149, 0.04144752852494169, 0.0455340981733565, 0.04313478999821837, 0.021147513645030563, 0.023626434476163423, 0.04044159604582927, 0.02332456409102186, 0.020942623138255383, 0.02958571769833362, 0.03925764000203966, 0.02649177458524379, 0.02118059299642506, 0.02865973650633006, 0.021263967504135776, 0.02198836932342941, 0.04405782513867163, 0.04127546165814241, 0.029174656116769462, 0.022411741361626283, 0.02026619265228917, 0.03429749187794684, 0.028840856154957097, 0.04033022485662644, 0.03545933303207538, 0.02210941435260548, 0.02367302436839143, 0.025174434254174583, 0.039804031841279126, 0.01880417307627158, 0.022843830977602106, 0.025262988356783384, 0.02252583963037036, 0.01886549607265809, 0.025277524163835025, 0.040261589482032706, 0.04053959504348574, 0.03973904644542611, 0.03271780101897437, 0.02356690432241519, 0.021244743146450477, 0.0369467767976425, 0.035675779744789214, 0.04522442451261473, 0.017642826946166815, 0.0229353210190911, 0.017806031229428417, 0.044047197143526735, 0.017837941840541847, 0.03918459499749774, 0.026629630816234914, 0.036036042533592084, 0.024111893303569224, 0.02305436840705973, 0.035317501804549366, 0.034909081752307246, 0.01543218854534241, 0.02448853220414323, 0.015951958787147082, 0.014522532585445598, 0.024572633850510613, 0.02159702709857786, 0.013567691625755393]}